{0.19097504,-0.36626107,-0.16516581,-0.2241282,-0.122682065,0.00048304995,-0.21042842,0.06862152,0.15297216,0.30271912,-0.13573909,-0.04593051,0.26386288,0.069778204,-0.26722413,0.35738143,
0.046139747,0.27601627,-0.06570196,0.033807337,-0.27299625,-0.065965116,0.11055067,-0.34287488,0.027367622,-0.23689748,0.27184406,0.15596524,0.25391683,-0.3361071,0.06294075,0.10860154,
-0.020074278,-1.9901888,0.053855613,-0.13196594,-0.7460982,0.35206753,-1.1734815,-1.0873013,-1.4944528,0.16486835,0.7746465,0.057220723,-0.004205495,-0.1328258,-0.48411536,1.6252806,
0.110789806,-0.13725397,-0.035754174,-1.2003913,-0.6789505,0.9992638,0.717376,0.29243967,0.27139804,-0.5703472,-0.75220996,-0.03814137,0.24651936,0.5754994,-0.1877182,0.17996511,
0.25309107,-0.04226448,-0.35843146,-0.82913464,-0.42398825,0.107974075,0.19094814,-0.3287482,-0.08774326,-0.18241043,-0.010177641,-0.08654097,-0.193371,-0.2940323,0.21106248,0.20143872,
-0.04471925,-0.33959362,0.05262307,-0.7025299,-0.3456873,-0.57546294,-0.3895153,-0.5227673,0.04286097,-0.7245615,0.6941237,0.019698735,0.07138699,-0.31648675,0.06777822,0.46431145,
-0.18189408,-0.05240445,0.28191856,0.2984089,0.34941742,0.21393113,-0.09027093,0.3172108,0.31657818,0.12172497,-0.3002586,-0.16332845,-0.2051422,-0.33596283,0.23451176,-0.18354201,
0.08269331,0.042526007,-0.29612267,-0.037671268,0.010674626,0.08276251,0.074205935,-0.159965,0.16356662,-0.21734598,0.12880969,-0.00433892,0.003462702,-0.343002,0.055386364,-0.0788317,
0.018241912,0.03014172,-0.08890497,0.21942677,0.041690163,0.31416517,0.16932641,0.3087457,-0.22010398,-0.09729397,0.1389888,-0.18945336,0.2843664,-0.18591632,0.31069663,-0.15037689,
-0.30623722,0.32626688,-0.36461166,-0.110806815,0.048705548,0.20642756,0.3990729,-0.20287485,-0.39712203,0.26616415,-0.1223335,-0.028014397,-0.27976394,0.32302624,0.36602652,-0.103329435,
0.10134503,-0.1450041,0.12366238,-0.21163854,-0.17588167,-0.16115618,-0.16638541,-0.2047901,0.30175152,-0.31591666,-0.05077503,0.17225674,-0.16665386,0.091242895,-0.3003461,0.28530362,
-0.020799965,0.70039433,-0.2214557,-0.2767035,-1.416039,-1.2546532,0.08170554,0.006511401,-1.8595169,0.2591893,0.37324452,0.252304,-0.34725723,-0.55182564,-0.28350395,0.043366294,
0.23350349,-0.13440485,-0.16701694,-0.419711,-0.55259335,0.060191374,-0.3206604,0.062310815,0.2959748,0.32053903,0.59210235,0.26413217,0.14297828,0.30057552,0.65091974,1.2869642,
-0.32596633,1.2739776,-0.29713535,-0.574769,-0.2860709,0.2838389,1.1390018,0.0009683328,0.14323822,-0.022770846,-0.5683243,0.14768219,-0.04498762,-0.41024053,0.92252797,-0.35524523,
-0.09013617,0.15428817,0.28104004,-0.09944764,0.037538856,0.01959293,-0.033231802,-0.018478926,-0.27026713,0.24647154,-0.2922847,-0.13003418,0.07682088,-0.20914318,0.16151354,0.23273183,
0.21492669,-0.2446542,-0.114629276,-0.06575317,0.06343722,-0.23461843,0.27092358,0.24350463,-0.37885833,0.2310561,0.30551067,-0.33669746,0.08446196,0.44049945,0.92416734,0.8199519,
-0.09512147,0.31787947,0.2897734,0.40434554,-0.4948485,0.3025692,-0.2157479,-0.326005,0.3594202,0.114438824,0.24169928,-0.2268162,0.029324085,0.423342,-0.39512432,-0.021968154,
-0.24991597,0.80548793,0.11055978,-0.48074788,0.5274289,1.3065389,0.8203576,-0.9203954,1.1439128,-1.1689259,-1.3430672,-0.2048042,0.21156278,1.2355007,0.47918716,-0.5478715,
0.07754195,-0.04407191,-0.18285465,-0.28936893,-0.02322436,0.16180936,0.3438172,-0.17676987,0.3963513,-0.36096781,0.2966439,0.09059637,-0.14554326,0.19812976,0.23481514,-0.34709892,
0.19278994,0.0033889413,-0.27984563,0.114053845,0.317789,-0.23113981,0.09073457,0.33408836,-0.27450436,0.16794851,-0.3070129,0.15749839,0.018399537,0.29425868,-0.16044049,0.13903841,
-0.049670905,0.014564596,0.2867926,0.33882946,0.009469738,0.08059848,-0.14669563,0.22596282,0.07769084,-0.13042672,0.24582464,-0.30195853,0.06420103,-0.15002204,0.26409322,0.18269412,
0.01131475,-0.77811295,-0.26871008,-0.07037595,0.32070068,0.94668454,-0.08361263,0.2702291,-0.32784036,-0.19182535,-0.99512243,-0.1832196,0.03120941,0.65575826,0.4289942,0.26076683,
-0.008443356,0.14606807,-0.12616912,-0.08174169,-0.15945686,-0.110701054,-0.21672432,-0.070870936,-0.1499686,-0.17986016,-0.115756914,0.23509285,0.23381034,-0.32863456,0.23050568,0.17068395,
-0.17921877,0.11391153,-0.07743417,-0.010776684,0.25090578,0.21375687,0.1324072,-0.2944443,-0.3560706,-0.57888335,0.39352375,-0.1879671,-0.15081862,0.20739165,-0.23750478,0.30408788,
0.043186188,0.094679296,-0.3167185,-0.16369937,0.21370168,-0.21973325,0.10133279,0.09388227,-0.5481082,-0.18359765,0.044265553,0.17304148,0.27328238,0.22220643,0.06866201,0.3560828,
-0.1827377,0.01714652,-0.15581767,0.19088666,0.1367384,0.0031040988,0.14889842,0.16313197,0.086403854,-0.32820132,-0.35842758,0.21712396,-0.20081463,0.19442435,0.30021468,0.27727598,
-0.30562627,-0.550302,-0.0058689043,0.22907884,0.21807413,-0.04427245,-0.24757326,-0.81187433,0.20013514,-2.0847256,0.122336455,-0.23854965,-0.0985046,0.28794512,-0.34191883,0.50527716,
-0.31408218,0.17814854,0.19033042,-0.045912795,-0.19027427,-0.34573784,0.28116283,0.256295,0.14837016,0.123430006,-0.28311056,-0.20878224,-0.2353598,-0.27536914,-0.17628834,-0.4683938,
-0.07632658,0.15030575,0.26589516,0.011175755,0.40000328,-0.2804012,0.18085654,-0.098205626,0.3235964,-0.19998613,0.20720126,0.08089451,-0.12959018,0.14672194,-0.14740622,-0.27337417,
0.26773003,1.3524635,0.23620884,-0.76818025,-0.33918813,1.4033035,1.2417525,0.3798355,-0.943426,0.108793184,-0.36236358,0.0065406323,0.108983815,1.25829,-0.5626763,-0.91672087,
-0.3036344,-0.0117222965,-0.28961688,-0.14461553,-0.2954762,0.21070644,0.10648966,-0.03875807,0.1976429,-0.05762908,-0.08449802,-0.13825692,0.024277002,-0.06720963,-0.092874706,-0.258059,
-0.23670807,-0.32663605,0.18333027,0.20976564,0.034941852,0.22498676,0.16884592,-0.31030515,-0.25757262,0.102176845,0.2267128,0.08765903,-0.10744403,0.04854238,-0.06994134,0.2914072,
}
